,MGH258,UKF243,UKF248,UKF251,UKF255,UKF259,UKF260,UKF266,UKF269,UKF275,UKF296,UKF304,UKF313,UKF334,ZH1007inf,ZH1007nec,ZH1019T1,ZH1019inf,ZH8811Abulk,ZH8811Bbulk,ZH8812bulk,ZH881T1,ZH881inf,ZH916T1,ZH916bulk,ZH916inf
HALLMARK_ADIPOGENESIS,0.07246525357399825,0.08006617077818275,0.08766609211121582,0.09092601518533473,0.34910809903893864,0.07692470086887224,0.04939971195269822,0.06694035683668416,0.13407157223641714,0.050256662052284004,0.04275337428817904,-0.11263684180443947,0.2268209156653531,0.0675785664146253,0.12269530699141447,0.19202084585393114,0.03840236373220016,0.2796483531156669,0.28592154928809743,0.30550167227698616,0.11892804877152657,0.047473517719883326,0.013221403855810427,0.25122065365072943,0.1368301239608486,0.14151983176901778
HALLMARK_ALLOGRAFT_REJECTION,0.046862894809509344,0.08426513865976076,0.1776066321542607,0.10395135790104287,0.27445546133457965,0.07530578109717238,0.11384107510752156,0.0786810979477485,0.17856495457443292,0.09827433658197862,0.02619704503552919,0.27097961487807914,0.2518553253003826,0.10079377596253389,0.17364245157619526,0.05323334746758746,-0.02274248263243682,0.2064274382397917,0.33817251834464307,0.3085313890108272,0.17386674897057142,0.2708756783388456,0.052612137016529364,0.3294568371388329,0.21026015114161037,-0.031965827520660475
HALLMARK_ANDROGEN_RESPONSE,-0.007597371325020568,0.016865384947106925,0.09882356016196521,0.02642456749391492,0.1465260703175457,-0.01663652706487288,0.09030980696112335,0.11889244174954403,0.11484632582935203,0.10344026600856954,0.04951261424251108,0.077806927461338,0.25562674101047006,0.09130814054019243,0.1935026476070909,0.13778756755930752,0.025688704679997093,0.11349447429582904,0.2912962831517181,0.2863870934074836,0.11501944643106442,0.1418603354594199,0.026451907468467692,0.29499553685588953,0.14866391071664384,0.07332967178158085
HALLMARK_ANGIOGENESIS,-0.09406700679047393,0.12659411794199152,0.08378892832257367,0.008497542995197664,0.18192140167060616,0.0002349288196150371,-0.05329508500354375,0.08142697002341164,0.17293535845591923,-0.0014866314580592346,-0.014715681063915033,0.15044175076841432,-0.10262369361736236,0.042346622303080374,0.11191756109156076,-0.07364184343339181,-0.038225870670403506,-0.058275145592071864,0.10333095741574344,-0.071524855505513,0.16870691348315836,0.19414624679271356,0.05634125165715962,0.04669898353747012,-0.06261699460197834,-0.1626068918545332
HALLMARK_APICAL_JUNCTION,0.08646235452476443,0.1344858403234778,0.1283974809126229,0.023079006795390843,0.2905886894736686,0.08797545322809165,0.09336505486274702,0.09640513549110316,0.15162043735274705,0.08384124818451866,0.0558658048000278,0.10695366360466797,0.25319193194741574,0.07273094169561303,0.15567464931326272,0.1314343615959347,0.05390661961574592,0.2701860625785817,0.2551164035702826,0.2827286323271111,0.11470418933278023,0.03147908708054788,-0.004803814495173547,0.29805707042242363,0.10210268607349114,0.1072472430969676
HALLMARK_APICAL_SURFACE,0.042289563306315524,0.1245417278132814,0.02895115345274876,0.011534155773894363,0.2095866963604767,0.05094545258978887,0.024863885788482705,0.03576130309550058,-0.02057594325683225,0.04120042884847295,0.002879769591898093,-0.1926305125239838,0.27653273712839754,-0.04083090056213759,0.020001678245108668,0.18384854132877002,-0.0016815544411048267,0.26339563176364644,0.22110126277344522,0.2627368662220546,0.05155990666908142,0.004068083579134074,-0.027011592513211898,0.25759263875211097,0.12742466731543992,0.013552277655056195
HALLMARK_APOPTOSIS,0.03958982471223714,0.08065016547526312,0.11845215007348253,0.026982328246920952,-0.10226453068155672,-0.044051476045557404,0.06293899062777067,-0.0041210865554168466,0.06524527225559348,0.031065231969333352,0.006570798596542509,0.17623001592294965,-0.022707151339747437,-0.022151475550800746,0.13784044129280373,0.005043648884739585,0.0038864413654373106,0.08552608772329925,-0.013436923595368584,-0.058539401146979024,0.10793091115034349,0.11525574151737705,0.029714091728728118,0.24283360127486822,0.12222962266305057,0.08975381288280926
HALLMARK_BILE_ACID_METABOLISM,0.0929911813827921,0.13070006603795487,-0.05897468704966311,0.025324770317498344,0.2527943708186004,0.04826254927007788,-0.0208854961844957,0.10927247205928883,0.14688176644672102,0.046825753858646624,0.008201896802741117,0.05770832107119549,0.1363166869019952,0.03620694669327403,0.013476328300035825,0.15868721737825614,-0.03029383417115037,0.1379505492190605,0.22273668850032696,0.2729495676029344,0.07128022287356509,0.10354720186900025,-0.02045139637860649,0.16390117978292043,0.12990791716722705,0.04161957854608797
HALLMARK_CHOLESTEROL_HOMEOSTASIS,0.03260828063408129,0.109306171548643,-0.06413984941922349,0.06060402742368569,0.2688497476690927,0.05072181647913122,-0.023098841419756735,0.08629461175689167,0.07168854280339905,-0.042498925964681016,-0.004998237951716736,0.16846339027794305,0.2446216121485045,0.03297874185864028,0.07338780602843789,0.09849167320761405,0.021907965170524034,0.1619774311460301,0.2604354312062515,0.2851704007168037,0.10642255324559192,-0.11254539033399288,0.03948525920633195,0.15527434069914503,0.053131265539980314,0.010212359359925607
HALLMARK_COAGULATION,0.04015192408187535,0.13254487883681437,0.1959336063633287,0.07892161413192846,0.21865521809102015,0.09253615709357013,0.13041329934775642,0.028279667038231402,0.14066438928530614,0.06121910322485103,0.09847842480951809,0.26438517083568014,0.18389853566504996,0.08544934585010402,0.16676235847797052,0.14729647072271057,0.04984466699476248,0.26477696675058987,0.32848309209856386,0.2956075813774629,0.16766531169643034,0.1975021448338485,0.06238340449146119,0.31075042647033435,0.07072039342344934,-0.04662286621597066
HALLMARK_COMPLEMENT,0.0412727060245752,0.1752746819290246,0.08346363480879256,0.05900380125939747,0.3252027675532034,0.016444710447630555,0.1566754350467209,0.14345197302943352,0.16465667568571973,0.03760982824042887,0.06594197625123056,0.24097217969365287,0.2227280641486209,0.06823627542260416,0.21151370514870288,0.0670316520160398,0.01644336843801313,0.2420735375863488,0.28088112568009055,0.2187130052445568,0.17925257426118324,0.11112351211524298,0.040655299370444736,0.22912589642391643,0.11781874002716197,0.0699233021748186
HALLMARK_DNA_REPAIR,0.007622858023631382,0.049767768872802064,0.04793507333037367,0.05377175187609167,0.2786899139724796,-0.030222298874055212,0.09345567990127493,0.1365882819978159,0.1698786003422551,0.1145865707637098,0.05836109696741891,0.007581142605933861,0.2888527806790256,0.05283022669984978,0.11270362331844253,0.17267409562393923,0.00649918250691446,0.26389752318570997,0.26921830754334236,0.27792399036998156,0.15374380487202607,0.012464743178756798,0.042273270422609775,0.18749156321814547,0.08958190294265642,0.21011951579616103
HALLMARK_E2F_TARGETS,-0.03162491840446972,0.047038373061041465,-0.0006049933566409885,-0.02391121272464925,0.28471373677747513,0.04940842772209827,0.023052777460843155,0.08842239202217902,0.1578277510483665,0.059990439700773925,0.01525475219041255,-0.14458757300015107,0.24265387666242483,0.052312543719009896,-0.01924838083992385,0.14083158335459983,-0.05217061360495359,0.22168004200113428,0.2976530757612715,0.31868539359023906,0.13747810853105316,-0.012401654691070624,-0.02828074431469254,0.1112376702644971,0.10770843735971267,0.11644105140087399
HALLMARK_EPITHELIAL_MESENCHYMAL_TRANSITION,-0.008034485880586804,0.13918375810868241,0.17966435145330953,-0.014431547157823498,-0.09804479982188626,0.03280505552723723,0.05477974738587364,0.08694349607680439,0.15330790919509,0.01686792780413942,0.0767459817359579,0.2654614307820646,-0.014877385099924504,0.08485551471015985,0.14924832626924728,0.030845868043981123,0.05647511997254089,0.19375805375633134,0.06724974275084553,-0.04800565122577686,0.17532604609289054,0.24946032128998197,0.013243488979963023,0.3013210780404854,-0.0011147695451361296,0.02891330422854313
HALLMARK_ESTROGEN_RESPONSE_EARLY,-0.007700537538888906,0.01352636107364531,0.07252518365070129,0.027904992753246857,0.06517453441162731,0.0070816222302167945,0.009431220049370062,0.07096863458878502,0.07487085020266991,0.07055137301959942,0.025906050892063808,-0.2305234291930945,-0.1141134412110341,0.014592334052469723,0.1666056119865389,0.07791014593908446,0.04741012071258286,0.17622626899282282,0.14255357577313496,0.10123796858627662,0.14646457867695098,-0.015120713018554766,0.0061907060076928,0.195576158836848,0.01617674059760814,0.10232320303422784
HALLMARK_ESTROGEN_RESPONSE_LATE,-0.04604889336120438,0.08371877124284446,0.046884578026695996,-0.05705306850985699,0.2796333773764405,0.05390666594564772,0.14393518283975765,0.03833644335146204,-0.008883633714739152,0.07338683139665031,0.0026437782965725216,0.21671833453387138,0.22274318038634944,-0.015109399665559358,0.0631492239051678,0.11333741061742549,-0.058757837356004906,0.12052048017655811,0.27738677100631776,0.31064735528344906,0.05986464440891337,0.12992938606034385,0.007583697357219268,0.1360822743903453,0.08885635298475462,0.03150829075819554
HALLMARK_FATTY_ACID_METABOLISM,-0.03291749693959346,0.03671639375644609,0.0077948453428278355,0.028007327813118956,-0.1673948396318487,-0.04302696141033505,0.12355070926870129,-0.01105809025160078,0.028450418900548873,-0.007380389416327549,-0.05427624046387857,0.015492039912841607,-0.031925664706513104,-0.026563003537619048,0.20267027848267288,-0.017427020180857507,0.0699477033557082,0.07772991587648209,-0.0766500933295865,-0.08071121660683216,0.06934327976327492,0.004058068501483359,-0.0058144589184747734,0.026699024923769923,-0.05584787597236229,0.030026390312965005
HALLMARK_G2M_CHECKPOINT,-0.008301799876642847,0.09935364029278117,-0.011300934550540287,0.07033820155858056,0.21070652625136532,0.056387121741690575,0.009797144821116233,0.11283891866280017,0.1480310006223189,0.029361979306326277,0.018426315258529394,0.06704454027616617,0.2407634390869546,0.05042602285836314,0.06828733753222796,0.13347020247461033,-0.04643884061514415,0.15387599645075076,0.21784050708752878,0.24132189957700037,0.11310999256002388,0.004442188592418963,-0.0225392834456484,0.13988183906764187,0.02541842510921557,0.14548451162685525
HALLMARK_GLYCOLYSIS,0.04119879376597731,-0.033633042298756376,0.030058281922213898,0.03125302575093659,0.06872793598928997,-0.03865984473920924,-0.010887554046938934,0.11475283106281252,0.12482485173208598,0.019550318967004963,-0.01749610265196583,-0.16356424920376073,0.009873181911401956,0.005174219053516044,0.042689926421089236,0.05207752768470714,0.02879578824377768,0.17263964496470297,0.1451754254688467,0.16497390179955163,0.10235790428733753,-0.02240913961201322,0.03063470998617575,0.14276844489487903,0.032981852673775874,0.1002710902926795
HALLMARK_HEDGEHOG_SIGNALING,-0.045196130876326034,-0.05289444600905832,-0.039456533280212536,-0.03541273860415017,0.1902956606665446,0.05912210422933339,0.02421189409967714,-0.017377659389971354,-0.07119827669727555,0.035843229101997595,-0.022758096197146954,-0.23625048640535734,0.05306517402838253,0.0069911246361272945,0.14893957593913218,-0.007319064898194276,0.051760165039171205,0.14491290271136892,0.13779396736207156,0.1945513260488597,0.05558301083712709,-0.10720233892906994,-0.053356131422086506,0.1172399304421468,0.10598570500061671,0.12832857572242892
HALLMARK_HEME_METABOLISM,0.05268311711531375,0.08495560528481302,0.13035299194576033,0.04912759127173798,0.24655691572471689,0.040901763567542535,0.10251775835603323,0.12871550147276292,0.15748299950777686,0.09391955762015818,0.07336989868398562,-0.10703087340132078,0.1905771612107416,0.052291435907065975,0.20626563262419037,0.14622923155435738,0.012219626047627065,0.21883502656407672,0.265588055457472,0.25386260900563334,0.15234245462237705,-0.021736855051755027,-0.006122007843365611,0.20563016463566514,0.15323532035532095,0.08158558188703313
HALLMARK_HYPOXIA,0.06455358767846062,-0.1057122094011847,-0.044410376521420034,0.03338260081267483,-0.2849976143341309,-0.07848996252916907,-0.041122372622573004,0.043818474490246256,-0.05389591841325934,-0.021227443732629327,0.05239629644366862,0.08478143119587919,-0.23194261007075898,-0.03225455321853638,0.07719366278621154,-0.13757646054265926,0.033078248598285294,0.07384209492000797,-0.28725624624232915,-0.3232487762097462,0.1328110264760023,0.04070366953349481,-0.026361109894655337,-0.0858240172263637,-0.14748020745664148,0.1873266520314776
HALLMARK_IL2_STAT5_SIGNALING,0.02989201818770645,0.1877279024631015,0.13377516546055024,0.03706466646552873,0.32030425078908825,-0.009597869027307507,0.08733483831616548,0.037335896628093786,0.14892280374368147,0.03786064001577147,0.01329594245696083,0.049238795252696914,-0.006681444044443681,0.06908265663889752,0.2385605447027479,0.09406358826591206,0.12745405906071908,0.1305282755479954,0.2709413401660417,0.2574036364869892,0.05838075643650747,0.056200970960286346,0.05038015379985794,0.16046625302035167,0.06903417984308838,0.05147502559044749
HALLMARK_IL6_JAK_STAT3_SIGNALING,0.07749974967210853,0.11476148228419233,0.14118164681016446,0.06763841899631268,0.16734742977079273,0.07354415312197837,0.0542359048822039,0.09831538432598812,0.12456782402733975,0.03136745746404232,0.06659276140619864,0.27373455536175956,0.054568028426702775,0.07560257084424532,0.1159491769509372,-0.08971891364928711,0.0017652757377394275,0.1893973191706516,0.282566999784839,0.3286123995622733,0.13897878588635437,0.18178523266467986,0.0384782432575034,0.1616195437281999,-0.03368778207032385,-0.13280704494296552
HALLMARK_INFLAMMATORY_RESPONSE,0.014658088347686381,0.1635519902875246,0.07152702186676041,0.04512694540953014,0.022851096297735442,0.0005943045591113325,0.07338371803784835,-0.019158416355269593,0.0997968542855886,-0.016785309082797947,0.020027705668047856,-0.09556675155365497,0.03209414862209937,0.036135203166218745,0.06430342351314368,0.07185060611124701,0.02885547611346792,0.1237563431176732,0.023358455678294344,-0.028012071681398763,0.0746008695165498,0.0010392342460526646,0.017083300662675077,0.1172846002447331,-0.04233133901119462,0.05286305104914037
HALLMARK_INTERFERON_ALPHA_RESPONSE,0.10976465284731113,0.09949939131991133,0.11697425394771942,0.1292500339034426,0.3199422340296999,0.0348721965135765,0.06213092581376696,0.06702434493734521,0.14656245815031746,0.10424800448430417,0.03708348494107503,0.2587296464818524,0.2653300769260004,0.05506335160137234,0.12334096747699844,0.09903740671691995,0.02207159954560943,0.12722730991801864,0.34037647070166,0.3556905385048035,-0.01161566641488641,0.15117835320554845,0.02218246440872503,0.26930882355445207,0.2195022122310584,-0.08741820151441831
HALLMARK_INTERFERON_GAMMA_RESPONSE,0.17560180247232215,0.1841874572397092,0.15945316726789882,0.12608576285519996,-0.03479637860399578,-0.016884279931450585,0.055128399399089006,0.06692926021418141,0.1651520418758464,0.08901696422169511,0.047518358420591586,0.29767154629876047,0.10765630657450426,0.11527118927739816,0.23100465475539186,0.11441153825068628,0.08645869741818844,0.16838224851783784,0.20667480434198818,0.1350674697898484,0.20258797362656622,0.22182398876681186,0.020846385824155832,0.3129264349826413,-0.04257551978576619,0.12865927798845367
HALLMARK_KRAS_SIGNALING_DN,0.10390023245357989,0.0628082487720933,-0.0027715689293828978,0.07763460192838578,0.0898035201557514,0.040806344556555546,0.0170684766559274,0.062128101368064764,-0.020000579764566494,0.032228287100798926,0.038105557482348555,-0.224521022281961,0.11504453227377454,-0.016618534152545526,0.09403672650914349,0.15483682558567738,0.11747069013471359,0.1175675725444374,0.1724044772381793,0.22351069469147633,0.10766559216998174,-0.07053858860209304,0.004976352741949131,0.14984302517662196,0.19471976861093113,0.08907394847021363
HALLMARK_KRAS_SIGNALING_UP,0.05971633021232477,0.06497198206058859,0.14032827342913118,0.024464354525439623,0.3048085246736785,-0.029210139155567815,0.1304982456313397,-0.010419133824960443,0.04580291311022834,0.10539687836080962,0.062235933854236154,-0.19828169123012676,0.1701647803094832,0.04109783076885822,0.1900064242582573,0.03342192535480552,-0.01464703192071204,0.1377273327445731,0.337690180524831,0.3244877833095727,0.15925597738307049,0.08317694172189728,0.003336282280298925,0.2990754630806753,0.21053720544994858,0.12798865416196764
HALLMARK_MITOTIC_SPINDLE,0.028301098963643846,0.08957000438635004,0.09103149807517597,0.0555016954071806,0.274925585805038,0.06153338183964289,0.09306797373310018,0.11144571523589819,0.13896982140272565,0.09520280173489581,0.016388184846441185,-0.09858685842502282,0.2642196588801607,0.07396585444317773,0.18050736091321193,0.08969345627897635,-0.0025845900786215493,0.19323705166328184,0.2690254022240424,0.2670283673982291,0.13889316157915335,-0.011785221793165003,-0.004589263085310782,0.21158280389300863,0.17287803418590575,0.0716965152909061
HALLMARK_MTORC1_SIGNALING,0.009246292071296668,-0.0902103796632566,-0.009170978564163795,0.030237876595719936,-0.20972328444537408,-0.0726667398957553,-0.0545682987711362,0.11071225618084236,0.13298460981621205,-0.004840525716807759,0.029220167610706893,-0.12040111216703024,-0.04139623105919784,0.0066433034132029785,0.09115379361237752,-0.029705456669446784,-0.01673651793339339,0.06146352671252365,-0.014310518111306616,-0.02668406181362815,0.05548737763209241,0.02800897545904352,0.01765822815727105,0.056651600571859195,-0.09411185692416554,0.09408200547486256
HALLMARK_MYC_TARGETS_V1,-0.014308970307231113,0.02845190208894868,-0.009623191322042068,0.02659302253986049,0.24204351475892277,-0.026457122505662175,0.051891856737268656,0.09679521261704344,0.16495827922658765,0.12009586427459942,0.06488183446891149,-0.04524316174108151,0.29390033284422223,0.07846374027616018,0.0429863941636653,0.18116512169646784,-0.005392597607473328,0.24847705138071738,0.21566591676998464,0.26072471743588926,0.14466966390888783,-0.019050042093753657,-0.005436883293327775,0.11851890909847658,0.052564455979771024,0.11461905906179763
HALLMARK_MYC_TARGETS_V2,0.019928162502538285,0.03445452306047496,0.0049191725756057274,-0.007700794858912361,0.20052051841287943,-0.051663120049044955,-0.02260402576684607,0.07732008224188587,0.11951092908655209,0.0729322968208603,0.04612529652561512,0.0564426701364596,0.13637350643923388,0.04867150053157011,-0.030112738591472198,-0.017778544692693563,0.027082054359019694,0.11064057083077711,0.18682644642545307,0.26305922697421835,0.06662419615484427,0.025321147898679796,0.02871628981940696,0.05329151821209294,-0.024605706653018488,-0.06766427695443762
HALLMARK_MYOGENESIS,0.05922484590015742,0.10553969488365322,0.1325472889917553,0.06548437785005401,0.2661211680583022,0.07527768642852077,0.1346891798584871,0.029583563814189657,-0.03822534947066824,0.10802331714740994,0.06870189668880021,-0.07989218736209733,0.11780930193752961,0.04143475258249958,0.17484651137300317,0.14372480166811016,0.03578956308731389,0.19555671128437074,0.32808738532287124,0.2775449785733321,0.06260724879087978,0.033807195370508004,0.05483713470557426,0.3192890039669668,0.2470208133837139,0.10383544411357411
HALLMARK_NOTCH_SIGNALING,0.04313281416829158,0.08358684194314325,0.03726023430226891,0.0008282820471716423,0.35507478302890216,0.052192998832807196,0.07719106130511255,0.06812218925186761,0.1601348908937963,0.0701706605431529,0.07806291748925574,-0.0870108707711149,0.2728547930860145,0.05355400261976559,0.11663721223366631,0.1981144181662893,0.020041521736595447,0.2728532525590393,0.2714303147565166,0.2824691645609741,0.10360730912167664,0.01486660549062245,-0.0251943839276987,0.15615717169875945,0.12546161553106971,-0.009541671658420405
HALLMARK_OXIDATIVE_PHOSPHORYLATION,0.007550814633165405,0.06194070187107191,-0.05354534867318009,0.06889400174149668,0.3211596182488514,-0.016123350702103433,0.02942919026427967,0.11611129140299493,0.061375704107225405,0.05013053797431035,0.01764500602679071,-0.13185223447312217,0.3038552756774808,0.059855985153006906,-0.007190970609391741,0.15131836479948813,-0.014396236951944794,0.2773925659675014,0.22344312897636417,0.2629564706603728,0.15169571926538097,-0.02671809998682982,0.014342102481227822,0.141261302791551,0.13856063250970974,0.160307966038831
HALLMARK_P53_PATHWAY,0.006454632263336939,-0.0391095312645918,0.03804333105921656,0.0526510081277134,0.0944340813618143,-0.012850925008720409,0.059365717632687526,0.09843513190931143,0.1529562409384557,0.08384804922668453,0.06918163930333845,0.10332235791384839,0.1713707972907839,0.008008587361182611,0.1194826947963817,0.06853009017191683,0.009908811154375663,0.15885757813221305,0.13710745786823714,0.16166359894343807,0.12737794780498302,-0.03662852708124652,0.02239394447208533,0.12278886323866368,-0.0023275042464291984,0.13619029179278064
HALLMARK_PANCREAS_BETA_CELLS,-0.0035645938441554665,0.06042070909498362,0.03604747716368101,0.03692915812770939,0.24331686879233738,0.00860198812772168,0.11789106853657039,0.03414468827417442,0.008231719583300545,0.06807697916109687,-0.007785651198351367,-0.1789904433048931,0.26643511361916095,0.05442899210959563,0.07833834851849372,0.1900042911006891,0.059841049316342924,0.1625421454072348,0.22118075443432153,0.28282663208577685,0.14398703689336895,-0.15952636347655566,-0.0417197709268682,0.16807510632735884,0.17011348425327083,0.1158314495093884
HALLMARK_PEROXISOME,-0.0072499147529936445,0.04845364880970274,0.1209448724037287,0.024322193099231833,0.26708059739957013,0.033498876975841224,0.06209328444526996,0.12066190688378871,0.09802196891622306,0.02959309537964024,0.022202224414036437,0.05551432900174294,0.06364004915616162,0.05465219837995673,0.12690218283005897,0.060717231105081655,0.09648605126421689,0.19682337378060955,0.25039293322132516,0.26544980803935225,0.05198600806056954,0.014692241923452068,0.023481443984610984,0.16226404835597405,0.028178724990047258,0.07992395842947227
HALLMARK_PI3K_AKT_MTOR_SIGNALING,0.04018810473308554,0.049418516008347416,0.031014401109327634,0.020781258939941687,0.18559256359872459,0.025781080054023714,0.10270523464732884,0.10463259128956982,0.0964205248667046,0.06841063293180281,0.015192456624192802,-0.11022331012086246,0.27865275540324924,0.0718791364626567,0.12600626559735129,0.16897911989487693,0.048358069523304834,0.2571789838200664,0.2348837863691293,0.2731826996518467,0.17193932654137076,-0.021318897483658557,-0.01201523608562914,0.27226121106401135,0.09738053831623422,0.14366358387143208
HALLMARK_PROTEIN_SECRETION,0.05250926696305111,0.11960935858372172,0.08940693587007303,0.04155813663397147,0.21195906837099165,-0.006226484553603096,0.0745335198765585,0.0742251359154133,0.12957123149928718,0.04585406141479502,0.036726834448120985,-0.11938769378371139,0.2889495000259738,0.058762134514381184,0.18716849461678609,0.14483780105071234,0.014296057012347058,0.22386662103798358,0.26185421296056755,0.28078987464719357,0.17759269097116984,0.004823763020387666,-0.03549755147552687,0.18840173491023424,0.10005911581314714,0.15067171676866178
HALLMARK_REACTIVE_OXYGEN_SPECIES_PATHWAY,-0.05029111502229313,0.0697766734758645,0.10059741334419323,0.09605930931194057,0.14881283354573632,-0.0575416931248972,0.11152779366638446,0.0030549346265414203,-0.060536094721612546,0.05267190171327548,-0.013732434021415859,0.2212917451042031,0.2797081212969149,0.03857067184635326,0.16589698018886276,0.03750235562022025,0.015190547960313864,-0.0014542111733049123,0.20959296536796385,0.24827539224396689,-0.0905352094257079,-0.005940290187199365,0.025818038691689565,0.1814297561136796,0.007631123850348057,-0.1772105949088189
HALLMARK_SPERMATOGENESIS,0.007643049974335016,0.057964769780662714,0.015277577035541973,-0.04497052506124722,0.28267908573588685,-0.024961385425779758,0.04419563545879911,0.06642674901597137,0.052301836011696086,0.050916159215647766,-0.008592697640856052,-0.19809232349134423,0.2525029190637506,0.05301925040533694,0.08057183667718165,0.12343805971362491,-0.02830985365318317,0.10228143693398842,0.2527486974236241,0.2857123676092465,0.06579166114249532,-0.05179331242407764,-0.0314097607047392,0.09265534062014051,0.14846165703475658,0.10537412945086541
HALLMARK_TGF_BETA_SIGNALING,0.07312083116916113,0.13270448553285966,0.14174269051792127,0.014070533493125554,0.2851215249467923,0.021599049799035826,0.08889014619733249,0.0961833553743359,0.1315596103769371,0.07645674044687223,0.06801789556744761,0.061115183510551986,0.21404960251246774,0.0834684803226405,0.21846377704922493,0.22155788192084827,0.044935570288450556,0.2417693356580536,0.2636269563608534,0.2889442402784257,0.09359337547320115,0.1351787766031484,0.05794605163269549,0.31362021466165146,0.21973092121946317,0.11144346989937234
HALLMARK_TNFA_SIGNALING_VIA_NFKB,-0.02850204278375347,0.052659857541666466,0.12243133338120539,0.0468899220524906,-0.015174024272746839,-0.061813566492482944,0.047664505750306306,0.024130985459074487,-0.08893290868298033,0.043210195864549036,0.04163702216000417,0.2653063056148851,0.11765459780210243,0.02404295461943344,0.18186439853270137,-0.03723674776279833,-0.03407388344107761,-0.012623654874030247,-0.04978929013200516,-0.007904887524502207,0.08535974100176563,0.08532794176826036,-0.016810207959942106,-0.009611946697286641,-0.08954851589365259,0.059081560959131287
HALLMARK_UNFOLDED_PROTEIN_RESPONSE,0.032790533502071985,0.03179624220482021,0.09290552956634537,0.0068394677953531645,-0.0036920258745818946,-0.00547630740823135,0.002859705031928236,0.13171528590059814,0.1472014526233804,0.09999113562783192,0.060585821866513144,-0.053765386245495414,0.279483800242312,0.06314952907351974,0.13026556774800155,0.1320557027069097,0.020590280026540918,0.20728247781923562,0.2500532862427402,0.27077870245455654,0.1551666075654287,0.03190591509366607,0.03761673770622877,0.18951560486396152,-0.001997231215913601,0.1441922348219296
HALLMARK_UV_RESPONSE_DN,0.04924912680055764,0.07884208742119027,0.1304343749195824,-0.01769276666444763,0.15350996535641795,0.079273551267847,0.1065120380841268,0.02800506157084716,0.008838203359854585,0.06687008493216558,0.01717957526379677,-0.2621394110739195,-0.038151030230787406,0.03609404631517859,0.1688004706412158,0.12734224300848568,0.01958126881737798,0.14522387929211314,0.29660708893795595,0.21043710301210763,0.06809652966430456,0.11959188645927939,-0.025484790453506025,0.2719044302803247,0.11144702941316643,0.1393634537044767
HALLMARK_UV_RESPONSE_UP,0.0019839931338127637,0.007466749832633618,0.003940747835032588,0.06284377570905342,0.09030117684906733,-0.01353799704092284,0.033999394627915264,0.09207733569078401,-0.043783348975756496,0.08944040488642796,-0.01339750335288155,-0.13638252113652674,0.1539860984120774,0.020818127753974115,0.11837160761609883,0.024333510167702667,0.030229522886571356,0.20805944947533078,0.15278879739705623,0.17762752739752566,0.05791910977491277,-0.09878436962748426,-0.04536983053705831,0.09243972473250112,0.06185513198465202,0.17294795937812862
HALLMARK_WNT_BETA_CATENIN_SIGNALING,0.0051810527521546105,0.020992090147509277,0.08390372691375107,-0.0461821425086871,0.0020354685327293566,0.10428571666511616,-0.07242801431394526,0.07499692646450198,0.10102191868490593,-0.002610893859417163,0.03840881799578575,-0.07822744342508749,-0.10275387972531898,0.035655511849333264,-0.09013357004860247,0.11423228053231227,-0.06630197113119196,0.1089673388965174,0.024125347284080802,0.12274575464655675,0.07615974921734256,0.007326330110952907,-0.022517198321495808,0.1702444288300121,-0.027843321086453526,-0.03393713836293224
HALLMARK_XENOBIOTIC_METABOLISM,0.06779718582226023,0.10748708388212605,0.025023001683046747,0.029378165090189614,0.08334988085933298,-0.02222976024870381,0.08324345195117379,0.04511121108742942,0.050547580201441955,0.046595556313751084,0.02218711974920193,0.08578540014571184,0.18990292389914995,0.07142924191644708,0.11391999946756805,0.12146844740545125,-0.007780760982242369,0.19641199634268308,0.23800836722691351,0.19105960777822734,0.09887879903583002,0.0316782504108759,0.047570828867386276,0.20199146552495598,0.11366174075096519,0.06901798023615188
